{
  "metadata": {
    "spatial_dims": 2,
    "mode": "bravo",
    "seed": 42,
    "num_steps": 10,
    "device": "cuda",
    "torch_version": "2.9.0+cu128"
  },
  "step_metrics": [
    {
      "step": 0,
      "total_loss": 1.9955955743789673,
      "mse_loss": 1.9955955743789673,
      "perceptual_loss": 0.0,
      "grad_norm_sum": 0.4940953254699707,
      "weight_samples": {
        "first_conv_in.conv.weight": [
          0.18020345270633698,
          0.19563473761081696,
          -0.05521855503320694,
          0.21651875972747803,
          -0.05164320766925812,
          0.04756252095103264,
          -0.11475282907485962,
          0.1384238451719284,
          0.20778165757656097,
          -0.17291781306266785
        ],
        "last_out.2.conv.bias": [
          9.99998883344233e-06
        ]
      }
    },
    {
      "step": 1,
      "total_loss": 1.9808151721954346,
      "mse_loss": 1.9808151721954346,
      "perceptual_loss": 0.0,
      "grad_norm_sum": 0.6037055670743695,
      "weight_samples": {
        "first_conv_in.conv.weight": [
          0.1802094280719757,
          0.1956421434879303,
          -0.055211201310157776,
          0.21651174128055573,
          -0.05163620039820671,
          0.04756825044751167,
          -0.11474578082561493,
          0.13841688632965088,
          0.20777428150177002,
          -0.17291054129600525
        ],
        "last_out.2.conv.bias": [
          1.206491742777871e-05
        ]
      }
    },
    {
      "step": 2,
      "total_loss": 1.9928568601608276,
      "mse_loss": 1.9928568601608276,
      "perceptual_loss": 0.0,
      "grad_norm_sum": 0.960298127273785,
      "weight_samples": {
        "first_conv_in.conv.weight": [
          0.18020327389240265,
          0.1956503987312317,
          -0.05520375818014145,
          0.21651604771614075,
          -0.051640886813402176,
          0.0475747212767601,
          -0.11474177241325378,
          0.13841009140014648,
          0.20776595175266266,
          -0.1729026734828949
        ],
        "last_out.2.conv.bias": [
          6.482961907749996e-06
        ]
      }
    },
    {
      "step": 3,
      "total_loss": 1.9919378757476807,
      "mse_loss": 1.9919378757476807,
      "perceptual_loss": 0.0,
      "grad_norm_sum": 1.0214529545504625,
      "weight_samples": {
        "first_conv_in.conv.weight": [
          0.180195614695549,
          0.19565102458000183,
          -0.05520322918891907,
          0.21652275323867798,
          -0.05163833126425743,
          0.04758062958717346,
          -0.11474698781967163,
          0.1384083777666092,
          0.20776914060115814,
          -0.17289407551288605
        ],
        "last_out.2.conv.bias": [
          -1.0323922339239289e-07
        ]
      }
    },
    {
      "step": 4,
      "total_loss": 2.0138700008392334,
      "mse_loss": 2.0138700008392334,
      "perceptual_loss": 0.0,
      "grad_norm_sum": 1.0474541389652567,
      "weight_samples": {
        "first_conv_in.conv.weight": [
          0.18019159138202667,
          0.19565518200397491,
          -0.055199455469846725,
          0.21653050184249878,
          -0.0516376718878746,
          0.04758797958493233,
          -0.11475397646427155,
          0.13840433955192566,
          0.20777162909507751,
          -0.17289720475673676
        ],
        "last_out.2.conv.bias": [
          -4.832151034861454e-08
        ]
      }
    },
    {
      "step": 5,
      "total_loss": 2.0044543743133545,
      "mse_loss": 2.0044543743133545,
      "perceptual_loss": 0.0,
      "grad_norm_sum": 0.40569268060017416,
      "weight_samples": {
        "first_conv_in.conv.weight": [
          0.18018542230129242,
          0.19565711915493011,
          -0.055198561400175095,
          0.21653637290000916,
          -0.05164055526256561,
          0.04758536443114281,
          -0.11475318670272827,
          0.1383982002735138,
          0.20777000486850739,
          -0.17290093004703522
        ],
        "last_out.2.conv.bias": [
          -2.491966597517603e-06
        ]
      }
    },
    {
      "step": 6,
      "total_loss": 1.980435848236084,
      "mse_loss": 1.980435848236084,
      "perceptual_loss": 0.0,
      "grad_norm_sum": 1.0212390723854161,
      "weight_samples": {
        "first_conv_in.conv.weight": [
          0.18017809092998505,
          0.19566084444522858,
          -0.05519747734069824,
          0.2165350764989853,
          -0.051646165549755096,
          0.04758159816265106,
          -0.11475623399019241,
          0.13839088380336761,
          0.20776893198490143,
          -0.1729050576686859
        ],
        "last_out.2.conv.bias": [
          -5.702631369786104e-06
        ]
      }
    },
    {
      "step": 7,
      "total_loss": 1.9872233867645264,
      "mse_loss": 1.9872233867645264,
      "perceptual_loss": 0.0,
      "grad_norm_sum": 0.47652245613059063,
      "weight_samples": {
        "first_conv_in.conv.weight": [
          0.1801699548959732,
          0.19566357135772705,
          -0.05519378185272217,
          0.2165318876504898,
          -0.05165280029177666,
          0.04758160188794136,
          -0.11476084589958191,
          0.1383829414844513,
          0.20776672661304474,
          -0.1729068011045456
        ],
        "last_out.2.conv.bias": [
          -7.143994025682332e-06
        ]
      }
    },
    {
      "step": 8,
      "total_loss": 1.9233126640319824,
      "mse_loss": 1.9233126640319824,
      "perceptual_loss": 0.0,
      "grad_norm_sum": 1.0346844178273877,
      "weight_samples": {
        "first_conv_in.conv.weight": [
          0.18016481399536133,
          0.19566138088703156,
          -0.05518977716565132,
          0.21652673184871674,
          -0.0516519658267498,
          0.047582756727933884,
          -0.11476098746061325,
          0.13837601244449615,
          0.2077668309211731,
          -0.17291124165058136
        ],
        "last_out.2.conv.bias": [
          -6.657352969341446e-06
        ]
      }
    },
    {
      "step": 9,
      "total_loss": 2.008652687072754,
      "mse_loss": 2.008652687072754,
      "perceptual_loss": 0.0,
      "grad_norm_sum": 1.0126838708107972,
      "weight_samples": {
        "first_conv_in.conv.weight": [
          0.1801641583442688,
          0.19565734267234802,
          -0.05518664792180061,
          0.2165209949016571,
          -0.05164923146367073,
          0.04758671298623085,
          -0.11475854367017746,
          0.1383710503578186,
          0.20776689052581787,
          -0.17291545867919922
        ],
        "last_out.2.conv.bias": [
          -6.529898655571742e-06
        ]
      }
    }
  ],
  "final_state_hash": "0348e108390770eb427f2b4c59f202c3"
}