{
  "metadata": {
    "spatial_dims": 2,
    "mode": "seg",
    "seed": 42,
    "num_steps": 10,
    "device": "cuda",
    "torch_version": "2.9.0+cu128"
  },
  "step_metrics": [
    {
      "step": 0,
      "total_loss": 1.2971547842025757,
      "mse_loss": 1.2971547842025757,
      "perceptual_loss": 0.0,
      "grad_norm_sum": 1.0916731432080269,
      "weight_samples": {
        "first_conv_in.conv.weight": [
          0.2548461854457855,
          0.27666932344436646,
          -0.07809083163738251,
          0.30620378255844116,
          -0.07303452491760254,
          0.06726356595754623,
          -0.16228501498699188,
          0.19576089084148407,
          0.2938476502895355,
          -0.24454271793365479
        ],
        "last_out.2.conv.bias": [
          9.99999883788405e-06
        ]
      }
    },
    {
      "step": 1,
      "total_loss": 1.2948734760284424,
      "mse_loss": 1.2948734760284424,
      "perceptual_loss": 0.0,
      "grad_norm_sum": 1.0921950966306364,
      "weight_samples": {
        "first_conv_in.conv.weight": [
          0.2548530399799347,
          0.2766765356063843,
          -0.07808347791433334,
          0.30621054768562317,
          -0.0730418786406517,
          0.06727085262537003,
          -0.16227763891220093,
          0.19576826691627502,
          0.29385441541671753,
          -0.24454398453235626
        ],
        "last_out.2.conv.bias": [
          1.999379492190201e-05
        ]
      }
    },
    {
      "step": 2,
      "total_loss": 1.3128767013549805,
      "mse_loss": 1.3128767013549805,
      "perceptual_loss": 0.0,
      "grad_norm_sum": 1.0870496779751804,
      "weight_samples": {
        "first_conv_in.conv.weight": [
          0.25486084818840027,
          0.27668461203575134,
          -0.07807520031929016,
          0.30621829628944397,
          -0.07304985076189041,
          0.0672788992524147,
          -0.16226933896541595,
          0.19577659666538239,
          0.29386213421821594,
          -0.24454988539218903
        ],
        "last_out.2.conv.bias": [
          2.995091381308157e-05
        ]
      }
    },
    {
      "step": 3,
      "total_loss": 1.3128304481506348,
      "mse_loss": 1.3128304481506348,
      "perceptual_loss": 0.0,
      "grad_norm_sum": 1.085963256334737,
      "weight_samples": {
        "first_conv_in.conv.weight": [
          0.2548682689666748,
          0.27669334411621094,
          -0.07806633412837982,
          0.3062267303466797,
          -0.0730583667755127,
          0.06728755682706833,
          -0.16226041316986084,
          0.19578540325164795,
          0.29386845231056213,
          -0.24455633759498596
        ],
        "last_out.2.conv.bias": [
          3.987931631854735e-05
        ]
      }
    },
    {
      "step": 4,
      "total_loss": 1.3098044395446777,
      "mse_loss": 1.3098044395446777,
      "perceptual_loss": 0.0,
      "grad_norm_sum": 1.0999790118708255,
      "weight_samples": {
        "first_conv_in.conv.weight": [
          0.25486642122268677,
          0.2767014503479004,
          -0.07805720716714859,
          0.30623042583465576,
          -0.07306738942861557,
          0.06729644536972046,
          -0.16225121915340424,
          0.19579458236694336,
          0.2938750386238098,
          -0.2445553094148636
        ],
        "last_out.2.conv.bias": [
          4.98558183608111e-05
        ]
      }
    },
    {
      "step": 5,
      "total_loss": 1.295470952987671,
      "mse_loss": 1.295470952987671,
      "perceptual_loss": 0.0,
      "grad_norm_sum": 1.0882749185128295,
      "weight_samples": {
        "first_conv_in.conv.weight": [
          0.25486376881599426,
          0.27671006321907043,
          -0.07804787158966064,
          0.30623602867126465,
          -0.07307654619216919,
          0.06730567663908005,
          -0.16224177181720734,
          0.19580385088920593,
          0.29388242959976196,
          -0.24455581605434418
        ],
        "last_out.2.conv.bias": [
          5.9798323491122574e-05
        ]
      }
    },
    {
      "step": 6,
      "total_loss": 1.299695372581482,
      "mse_loss": 1.299695372581482,
      "perceptual_loss": 0.0,
      "grad_norm_sum": 1.1056280063933328,
      "weight_samples": {
        "first_conv_in.conv.weight": [
          0.25485825538635254,
          0.27671903371810913,
          -0.07803832739591599,
          0.30623936653137207,
          -0.0730859711766243,
          0.06731516122817993,
          -0.16223222017288208,
          0.1958133727312088,
          0.2938905358314514,
          -0.2445516586303711
        ],
        "last_out.2.conv.bias": [
          6.979442696319893e-05
        ]
      }
    },
    {
      "step": 7,
      "total_loss": 1.3155922889709473,
      "mse_loss": 1.3155922889709473,
      "perceptual_loss": 0.0,
      "grad_norm_sum": 1.0864814377869265,
      "weight_samples": {
        "first_conv_in.conv.weight": [
          0.254852294921875,
          0.2767283618450165,
          -0.0780285894870758,
          0.30624502897262573,
          -0.07309553027153015,
          0.06732487678527832,
          -0.1622224748134613,
          0.19582299888134003,
          0.29389920830726624,
          -0.24455106258392334
        ],
        "last_out.2.conv.bias": [
          7.972522143973038e-05
        ]
      }
    },
    {
      "step": 8,
      "total_loss": 1.2689284086227417,
      "mse_loss": 1.2689284086227417,
      "perceptual_loss": 0.0,
      "grad_norm_sum": 1.0931619485533848,
      "weight_samples": {
        "first_conv_in.conv.weight": [
          0.2548453211784363,
          0.2767379581928253,
          -0.0780186727643013,
          0.30625200271606445,
          -0.07310531288385391,
          0.06733474135398865,
          -0.162212535738945,
          0.19583283364772797,
          0.2939082980155945,
          -0.24455109238624573
        ],
        "last_out.2.conv.bias": [
          8.964550943346694e-05
        ]
      }
    },
    {
      "step": 9,
      "total_loss": 1.3101794719696045,
      "mse_loss": 1.3101794719696045,
      "perceptual_loss": 0.0,
      "grad_norm_sum": 1.0963873617110724,
      "weight_samples": {
        "first_conv_in.conv.weight": [
          0.2548375725746155,
          0.27674776315689087,
          -0.07800858467817307,
          0.30625975131988525,
          -0.0731152668595314,
          0.06734462827444077,
          -0.16220243275165558,
          0.19584284722805023,
          0.293917715549469,
          -0.2445494383573532
        ],
        "last_out.2.conv.bias": [
          9.95768714346923e-05
        ]
      }
    }
  ],
  "final_state_hash": "5f624551377d17a7d5bf393f069eff67"
}
