{
  "metadata": {
    "spatial_dims": 3,
    "mode": "bravo",
    "seed": 42,
    "num_steps": 10,
    "device": "cuda",
    "torch_version": "2.9.0+cu128"
  },
  "step_metrics": [
    {
      "step": 0,
      "total_loss": 2.0094170570373535,
      "mse_loss": 2.0094170570373535,
      "perceptual_loss": 0.0,
      "grad_norm_sum": 1.000608603528235,
      "weight_samples": {
        "first_conv_in.conv.weight": [
          0.10404051840305328,
          0.11294977366924286,
          -0.0318804495036602,
          0.12500716745853424,
          -0.029816221445798874,
          0.027460236102342606,
          -0.06625258177518845,
          0.07991904765367508,
          0.11996280401945114,
          -0.0998341515660286
        ],
        "last_out.2.conv.bias": [
          9.999834219343029e-06
        ]
      }
    },
    {
      "step": 1,
      "total_loss": 1.994304895401001,
      "mse_loss": 1.994304895401001,
      "perceptual_loss": 0.0,
      "grad_norm_sum": 1.0095291816759489,
      "weight_samples": {
        "first_conv_in.conv.weight": [
          0.10404784232378006,
          0.11294277012348175,
          -0.03187306225299835,
          0.125014528632164,
          -0.02980882115662098,
          0.027467655017971992,
          -0.06625998020172119,
          0.07992643862962723,
          0.11997020989656448,
          -0.09984046965837479
        ],
        "last_out.2.conv.bias": [
          1.9942975995945744e-05
        ]
      }
    },
    {
      "step": 2,
      "total_loss": 2.0035605430603027,
      "mse_loss": 2.0035605430603027,
      "perceptual_loss": 0.0,
      "grad_norm_sum": 1.010660140987333,
      "weight_samples": {
        "first_conv_in.conv.weight": [
          0.10404995828866959,
          0.11293476074934006,
          -0.03187195211648941,
          0.12501175701618195,
          -0.029810575768351555,
          0.027463659644126892,
          -0.06625831127166748,
          0.07992260158061981,
          0.11996655911207199,
          -0.09984703361988068
        ],
        "last_out.2.conv.bias": [
          2.7124073312734254e-05
        ]
      }
    },
    {
      "step": 3,
      "total_loss": 1.9878580570220947,
      "mse_loss": 1.9878580570220947,
      "perceptual_loss": 0.0,
      "grad_norm_sum": 1.0212180811272458,
      "weight_samples": {
        "first_conv_in.conv.weight": [
          0.10405481606721878,
          0.11292684823274612,
          -0.03186808153986931,
          0.12501442432403564,
          -0.029808329418301582,
          0.027465851977467537,
          -0.0662619024515152,
          0.07992547005414963,
          0.1199687123298645,
          -0.09984695911407471
        ],
        "last_out.2.conv.bias": [
          2.3427584892488085e-05
        ]
      }
    },
    {
      "step": 4,
      "total_loss": 2.0156445503234863,
      "mse_loss": 2.0156445503234863,
      "perceptual_loss": 0.0,
      "grad_norm_sum": 1.0266483260804375,
      "weight_samples": {
        "first_conv_in.conv.weight": [
          0.10405797511339188,
          0.11291830986738205,
          -0.0318622812628746,
          0.1250116378068924,
          -0.029811760410666466,
          0.027463756501674652,
          -0.06626354902982712,
          0.07992280274629593,
          0.1199665367603302,
          -0.09985010325908661
        ],
        "last_out.2.conv.bias": [
          2.7173962735105306e-05
        ]
      }
    },
    {
      "step": 5,
      "total_loss": 1.9901007413864136,
      "mse_loss": 1.9901007413864136,
      "perceptual_loss": 0.0,
      "grad_norm_sum": 1.0168707158390637,
      "weight_samples": {
        "first_conv_in.conv.weight": [
          0.1040540337562561,
          0.11291150748729706,
          -0.0318605937063694,
          0.12500688433647156,
          -0.02981647476553917,
          0.027459293603897095,
          -0.06626173108816147,
          0.07991846650838852,
          0.11996206641197205,
          -0.09985573589801788
        ],
        "last_out.2.conv.bias": [
          2.8768859920091927e-05
        ]
      }
    },
    {
      "step": 6,
      "total_loss": 1.9918158054351807,
      "mse_loss": 1.9918158054351807,
      "perceptual_loss": 0.0,
      "grad_norm_sum": 0.5321479947993711,
      "weight_samples": {
        "first_conv_in.conv.weight": [
          0.10404815524816513,
          0.11291065067052841,
          -0.03186141699552536,
          0.12500311434268951,
          -0.02982105128467083,
          0.02745424024760723,
          -0.06625844538211823,
          0.07991398125886917,
          0.11995688825845718,
          -0.09986129403114319
        ],
        "last_out.2.conv.bias": [
          3.339288377901539e-05
        ]
      }
    },
    {
      "step": 7,
      "total_loss": 2.003392219543457,
      "mse_loss": 2.003392219543457,
      "perceptual_loss": 0.0,
      "grad_norm_sum": 1.0187470636480112,
      "weight_samples": {
        "first_conv_in.conv.weight": [
          0.1040412038564682,
          0.11291394382715225,
          -0.03186493739485741,
          0.1249982938170433,
          -0.029826419427990913,
          0.02744816057384014,
          -0.06625379621982574,
          0.0799088254570961,
          0.11995074152946472,
          -0.09986799210309982
        ],
        "last_out.2.conv.bias": [
          3.7862548197153956e-05
        ]
      }
    },
    {
      "step": 8,
      "total_loss": 1.9886505603790283,
      "mse_loss": 1.9886505603790283,
      "perceptual_loss": 0.0,
      "grad_norm_sum": 1.0217361711578405,
      "weight_samples": {
        "first_conv_in.conv.weight": [
          0.10403784364461899,
          0.11291444301605225,
          -0.03186684101819992,
          0.12499727308750153,
          -0.029831308871507645,
          0.027445398271083832,
          -0.06625237315893173,
          0.07990633696317673,
          0.11994726955890656,
          -0.09987326711416245
        ],
        "last_out.2.conv.bias": [
          4.3004125473089516e-05
        ]
      }
    },
    {
      "step": 9,
      "total_loss": 1.9938597679138184,
      "mse_loss": 1.9938597679138184,
      "perceptual_loss": 0.0,
      "grad_norm_sum": 1.014262174563064,
      "weight_samples": {
        "first_conv_in.conv.weight": [
          0.10403288155794144,
          0.11291760206222534,
          -0.03186974301934242,
          0.12499413639307022,
          -0.02983550727367401,
          0.02744140289723873,
          -0.0662495493888855,
          0.07990280538797379,
          0.11994291841983795,
          -0.09987831860780716
        ],
        "last_out.2.conv.bias": [
          4.743906174553558e-05
        ]
      }
    }
  ],
  "final_state_hash": "c765a71febabe3b8df3f17d969344f16"
}