{
  "metadata": {
    "spatial_dims": 3,
    "mode": "seg",
    "seed": 42,
    "num_steps": 10,
    "device": "cuda",
    "torch_version": "2.9.0+cu128"
  },
  "step_metrics": [
    {
      "step": 0,
      "total_loss": 1.3063722848892212,
      "mse_loss": 1.3063722848892212,
      "perceptual_loss": 0.0,
      "grad_norm_sum": 1.0637547820806503,
      "weight_samples": {
        "first_conv_in.conv.weight": [
          0.14713551104068756,
          0.15973509848117828,
          -0.045085761696100235,
          0.17678682506084442,
          -0.04216650128364563,
          0.03883463516831398,
          -0.09369529783725739,
          0.11302260309457779,
          0.1696530133485794,
          -0.14118680357933044
        ],
        "last_out.2.conv.bias": [
          9.99999883788405e-06
        ]
      }
    },
    {
      "step": 1,
      "total_loss": 1.2995232343673706,
      "mse_loss": 1.2995232343673706,
      "perceptual_loss": 0.0,
      "grad_norm_sum": 1.0716898214792383,
      "weight_samples": {
        "first_conv_in.conv.weight": [
          0.14714287221431732,
          0.15974225103855133,
          -0.04507841169834137,
          0.17679369449615479,
          -0.0421593077480793,
          0.03884200006723404,
          -0.09368789941072464,
          0.11303001642227173,
          0.1696603149175644,
          -0.1411794275045395
        ],
        "last_out.2.conv.bias": [
          2.0007693819934502e-05
        ]
      }
    },
    {
      "step": 2,
      "total_loss": 1.3023908138275146,
      "mse_loss": 1.3023908138275146,
      "perceptual_loss": 0.0,
      "grad_norm_sum": 1.0669459130903585,
      "weight_samples": {
        "first_conv_in.conv.weight": [
          0.14715126156806946,
          0.1597505360841751,
          -0.04507007077336311,
          0.17678943276405334,
          -0.042157743126153946,
          0.03885044902563095,
          -0.09367959201335907,
          0.11303834617137909,
          0.16966862976551056,
          -0.14117099344730377
        ],
        "last_out.2.conv.bias": [
          2.998280615429394e-05
        ]
      }
    },
    {
      "step": 3,
      "total_loss": 1.2976796627044678,
      "mse_loss": 1.2976796627044678,
      "perceptual_loss": 0.0,
      "grad_norm_sum": 1.081286233859099,
      "weight_samples": {
        "first_conv_in.conv.weight": [
          0.14716003835201263,
          0.1597571074962616,
          -0.04506199061870575,
          0.17679426074028015,
          -0.04215184599161148,
          0.03885936364531517,
          -0.09367068111896515,
          0.11304730176925659,
          0.1696770191192627,
          -0.14116261899471283
        ],
        "last_out.2.conv.bias": [
          3.996517989435233e-05
        ]
      }
    },
    {
      "step": 4,
      "total_loss": 1.305928349494934,
      "mse_loss": 1.305928349494934,
      "perceptual_loss": 0.0,
      "grad_norm_sum": 1.0712564619818856,
      "weight_samples": {
        "first_conv_in.conv.weight": [
          0.14716923236846924,
          0.15976464748382568,
          -0.045053258538246155,
          0.17679783701896667,
          -0.04214557632803917,
          0.03886864334344864,
          -0.09366140514612198,
          0.11305659264326096,
          0.1696859449148178,
          -0.1411537081003189
        ],
        "last_out.2.conv.bias": [
          4.9920083256438375e-05
        ]
      }
    },
    {
      "step": 5,
      "total_loss": 1.2851178646087646,
      "mse_loss": 1.2851178646087646,
      "perceptual_loss": 0.0,
      "grad_norm_sum": 1.0700040360623868,
      "weight_samples": {
        "first_conv_in.conv.weight": [
          0.14717867970466614,
          0.1597728729248047,
          -0.04504410922527313,
          0.17679831385612488,
          -0.04213881492614746,
          0.03887813165783882,
          -0.09365186095237732,
          0.11306614428758621,
          0.16969522833824158,
          -0.14114443957805634
        ],
        "last_out.2.conv.bias": [
          5.983294977340847e-05
        ]
      }
    },
    {
      "step": 6,
      "total_loss": 1.290297508239746,
      "mse_loss": 1.290297508239746,
      "perceptual_loss": 0.0,
      "grad_norm_sum": 1.070310852495903,
      "weight_samples": {
        "first_conv_in.conv.weight": [
          0.14718815684318542,
          0.15978144109249115,
          -0.045034654438495636,
          0.1767953336238861,
          -0.042131733149290085,
          0.038887448608875275,
          -0.09364212304353714,
          0.11307589709758759,
          0.16970475018024445,
          -0.14113490283489227
        ],
        "last_out.2.conv.bias": [
          6.970333197386935e-05
        ]
      }
    },
    {
      "step": 7,
      "total_loss": 1.2959866523742676,
      "mse_loss": 1.2959866523742676,
      "perceptual_loss": 0.0,
      "grad_norm_sum": 1.0793860627054315,
      "weight_samples": {
        "first_conv_in.conv.weight": [
          0.14719714224338531,
          0.15979015827178955,
          -0.04502497613430023,
          0.17679160833358765,
          -0.042123809456825256,
          0.03889435902237892,
          -0.09363257139921188,
          0.11308547109365463,
          0.16971397399902344,
          -0.1411251723766327
        ],
        "last_out.2.conv.bias": [
          7.953165186336264e-05
        ]
      }
    },
    {
      "step": 8,
      "total_loss": 1.2850675582885742,
      "mse_loss": 1.2850675582885742,
      "perceptual_loss": 0.0,
      "grad_norm_sum": 1.080544598199095,
      "weight_samples": {
        "first_conv_in.conv.weight": [
          0.14720465242862701,
          0.15979856252670288,
          -0.0450151301920414,
          0.1767866313457489,
          -0.04211542010307312,
          0.03889786824584007,
          -0.09362342953681946,
          0.11309468746185303,
          0.16972197592258453,
          -0.14111536741256714
        ],
        "last_out.2.conv.bias": [
          8.930810872698203e-05
        ]
      }
    },
    {
      "step": 9,
      "total_loss": 1.2769148349761963,
      "mse_loss": 1.2769148349761963,
      "perceptual_loss": 0.0,
      "grad_norm_sum": 1.0715359807973135,
      "weight_samples": {
        "first_conv_in.conv.weight": [
          0.14721165597438812,
          0.15980714559555054,
          -0.04500510171055794,
          0.17678019404411316,
          -0.04210861399769783,
          0.03890141844749451,
          -0.09361394494771957,
          0.11310421675443649,
          0.16973058879375458,
          -0.14110536873340607
        ],
        "last_out.2.conv.bias": [
          9.902191231958568e-05
        ]
      }
    }
  ],
  "final_state_hash": "8a08fd30a43a268269ffb2e1596934bc"
}